{
  "layers": [
    {
      "neurons": [
        {
          "weights": [
            0.6872409961011892,
            -0.644118084507096,
            0.3599326468246824,
            0.18958176508113112
          ],
          "bias": -0.349764355639562,
          "output": 1,
          "delta": 0
        },
        {
          "weights": [
            -0.14430634087237615,
            -0.8385630492886436,
            -0.35686281608638226,
            0.05942690190315103
          ],
          "bias": -0.8050127600875163,
          "output": 1,
          "delta": 0
        },
        {
          "weights": [
            -0.8400545367505787,
            -0.21003009757966562,
            0.7969814428723752,
            0.20880502594925532
          ],
          "bias": -0.6747851679217791,
          "output": 1,
          "delta": 0
        },
        {
          "weights": [
            0.8550101233481924,
            0.8826444304161416,
            0.3045695523381642,
            -0.2940807822984113
          ],
          "bias": -0.47622485561369676,
          "output": 0,
          "delta": 0
        }
      ]
    },
    {
      "neurons": [
        {
          "weights": [
            0.5197063999268634,
            -0.3782336990431694,
            0.29641409013281994,
            -0.17487284494621202
          ],
          "bias": -0.12190315200173817,
          "output": 0.5787342862418046,
          "delta": -0.0399007788520089
        },
        {
          "weights": [
            -0.22788443083943666,
            -0.3379260862625378,
            0.7744263858162795,
            -0.9293191979427271
          ],
          "bias": 0.6912854191245638,
          "output": 0.710709018171269,
          "delta": 0.026780951437344228
        },
        {
          "weights": [
            -0.17970791690699933,
            0.7783615939163724,
            -0.01996063740721927,
            0.3966053688771427
          ],
          "bias": -0.46403958369375514,
          "output": 0.5287116809093855,
          "delta": -0.007993788899888454
        },
        {
          "weights": [
            -0.5334871304357788,
            -0.38963793212591363,
            0.800582530632851,
            0.34470713921241347
          ],
          "bias": 0.5259209833341792,
          "output": 0.5993261298649366,
          "delta": 0.01800873053194203
        }
      ]
    },
    {
      "neurons": [
        {
          "weights": [
            -0.16668083984128543,
            -0.41190019897999636,
            -0.04599381694250649,
            -0.29862968275768964
          ],
          "bias": -0.5907755848068797,
          "output": 0.2346514466547905,
          "delta": -0.04214108738494783
        },
        {
          "weights": [
            0.254494679774948,
            -0.8985860498856718,
            0.3682911397818197,
            -0.23464076459487893
          ],
          "bias": -0.6994271285052377,
          "output": 0.24313408747771176,
          "delta": -0.0447415111897743
        },
        {
          "weights": [
            -0.4666550777758234,
            -1.4454709573022362,
            0.5475368341527931,
            -0.11877991514853684
          ],
          "bias": 0.01035465424730648,
          "output": 0.2558759452109008,
          "delta": -0.048719661684250626
        },
        {
          "weights": [
            -1.26569881652461,
            0.01713350684789634,
            0.06455344793430147,
            0.3221002435937474
          ],
          "bias": -0.5045882895238405,
          "output": 0.2686852436501551,
          "delta": 0.1436985840063406
        }
      ]
    }
  ]
}