{
  "layers": [
    {
      "neurons": [
        {
          "weights": [
            0.808234474668668,
            0.22683366868868204,
            0.2781881959614989,
            0.3418647618984523
          ],
          "bias": -0.2611890384061688,
          "output": 1,
          "delta": 0
        },
        {
          "weights": [
            0.9776077488883232,
            -0.7730474755309289,
            -0.4853896846934245,
            -0.9226143357736507
          ],
          "bias": 0.05631287934586271,
          "output": 0,
          "delta": 0
        },
        {
          "weights": [
            -0.023875040164465844,
            0.2955596648979366,
            0.6840828558801526,
            0.5879833771148593
          ],
          "bias": 0.05132958008035193,
          "output": 1,
          "delta": 0
        },
        {
          "weights": [
            -0.3299981966648844,
            -0.9955573311109305,
            -0.08175423643881752,
            -0.9966404120969614
          ],
          "bias": -0.15591999133244583,
          "output": 0,
          "delta": 0
        }
      ]
    },
    {
      "neurons": [
        {
          "weights": [
            -0.3852962835406868,
            -0.9116103484956706,
            -0.853066243208485,
            -0.4415872285267566
          ],
          "bias": -0.6445810242542933,
          "output": 0.13208631454847566,
          "delta": -0.010229633146641296
        },
        {
          "weights": [
            1.2045395652258952,
            -0.15781563029332113,
            0.47159915433351984,
            0.9084013431734526
          ],
          "bias": -0.4901004877774666,
          "output": 0.7661148410852716,
          "delta": -0.015454292967160995
        },
        {
          "weights": [
            0.44279056593879196,
            0.6842071267718979,
            -1.0679425795789836,
            0.5435870073402147
          ],
          "bias": 0.2857276842041996,
          "output": 0.4157389753444653,
          "delta": 0.028863778410805715
        },
        {
          "weights": [
            -0.4741961268649917,
            -0.510835194994494,
            0.6415130723348204,
            0.20922806204710054
          ],
          "bias": 0.5852724146819763,
          "output": 0.6795864169601605,
          "delta": 0.023918855729926584
        }
      ]
    },
    {
      "neurons": [
        {
          "weights": [
            0.04448451592552241,
            -1.068170709557969,
            -0.5152750551721683,
            -0.7231484258547757
          ],
          "bias": 0.34245395346069385,
          "output": 0.2360027595242073,
          "delta": -0.042552585414268644
        },
        {
          "weights": [
            -0.3928764364791774,
            0.28191893387732136,
            0.037045123501922975,
            -0.06204856053192431
          ],
          "bias": -1.264077535208996,
          "output": 0.244947984813619,
          "delta": -0.0453027549104802
        },
        {
          "weights": [
            0.8464798161829479,
            -0.9784551614790182,
            -0.21267859483477036,
            -1.110221907050336
          ],
          "bias": 0.4017210045508231,
          "output": 0.2539011295130282,
          "delta": -0.048097848305136054
        },
        {
          "weights": [
            -0.44976363934211794,
            -1.1580362664984531,
            0.6179211769031036,
            0.1609727620984376
          ],
          "bias": -0.43652045009000245,
          "output": 0.26502087207717406,
          "delta": 0.14316276937528674
        }
      ]
    }
  ]
}