{
  "layers": [
    {
      "neurons": [
        {
          "weights": [
            0.8451971071284774,
            0.4546794053521377,
            -0.9547307133422696,
            0.13291116824723503
          ],
          "bias": 0.5639575453286112,
          "output": 1,
          "delta": 0
        },
        {
          "weights": [
            0.7681781226436473,
            -0.0015403473792330313,
            -0.577902052058999,
            0.058516947711541034
          ],
          "bias": -0.14880465844269364,
          "output": 1,
          "delta": 0
        },
        {
          "weights": [
            0.8982982165878477,
            -0.0966820249203657,
            0.343952183357328,
            0.6645686059364433
          ],
          "bias": -0.6833995717192025,
          "output": 1,
          "delta": 0
        },
        {
          "weights": [
            0.9373119960686411,
            -0.49059877149079845,
            0.7764804065845055,
            -0.38701566942181453
          ],
          "bias": -0.9174200844585523,
          "output": 0,
          "delta": 0
        }
      ]
    },
    {
      "neurons": [
        {
          "weights": [
            -0.7628085021867975,
            -0.5095677859915456,
            0.7316361994029884,
            -0.7998659316121053
          ],
          "bias": 0.058932762188810515,
          "output": 0.3819674430677038,
          "delta": -0.015039169981945832
        },
        {
          "weights": [
            -0.7991144731118378,
            0.8983069756072615,
            0.09543653233351229,
            0.44083896537197154
          ],
          "bias": 0.8412996544954281,
          "output": 0.7380825907692723,
          "delta": -0.0024454626168983074
        },
        {
          "weights": [
            0.6108976452102789,
            0.7239792838746016,
            0.9889196449164658,
            -0.6215713360986153
          ],
          "bias": 0.9340673682204349,
          "output": 0.9629541898427315,
          "delta": 0.0003340246426531934
        },
        {
          "weights": [
            -0.3329901259121948,
            -1.0954368391209204,
            -0.010248385535512114,
            0.25393701489826026
          ],
          "bias": -0.16672879224120316,
          "output": 0.16724561532381912,
          "delta": -0.0032220704356870074
        }
      ]
    },
    {
      "neurons": [
        {
          "weights": [
            -0.5748341311299282,
            -1.2691536277080022,
            -0.08577095349712592,
            -0.9422166984247068
          ],
          "bias": 0.20838604743547157,
          "output": 0.23379787806679372,
          "delta": -0.041881717283516945
        },
        {
          "weights": [
            0.35595476473637483,
            0.7910097496209423,
            -0.9184419543014541,
            -0.5270122316147517
          ],
          "bias": -0.8823969360563085,
          "output": 0.24342826317094227,
          "delta": -0.044832412990519675
        },
        {
          "weights": [
            -0.3216932801744193,
            -0.4309844754806436,
            -0.5018551401238182,
            0.888746419776435
          ],
          "bias": -0.2951171798596509,
          "output": 0.2555106965463244,
          "delta": -0.048604517267232125
        },
        {
          "weights": [
            -0.6092912171759772,
            -0.35635345516447425,
            -0.41527524911082786,
            -0.299785180481758
          ],
          "bias": -0.06314285978148725,
          "output": 0.26644925915898615,
          "delta": 0.14337546424344233
        }
      ]
    }
  ]
}