{
  "layers": [
    {
      "neurons": [
        {
          "weights": [
            -0.13714968427275087,
            0.8289825778744866,
            0.6542983107000164,
            0.9635159620155365
          ],
          "bias": 0.8925512026412323,
          "output": 1,
          "delta": 0
        },
        {
          "weights": [
            -0.8430190044670993,
            0.3809626711770908,
            0.0006747362637433696,
            -0.8587163144753467
          ],
          "bias": 0.2345786565161958,
          "output": 0,
          "delta": 0
        },
        {
          "weights": [
            0.6422986164681597,
            -0.9271644794845098,
            0.12382573787774875,
            -0.5657258069217315
          ],
          "bias": 0.9713660462653699,
          "output": 0,
          "delta": 0
        },
        {
          "weights": [
            0.5171660190529199,
            -0.7299423181282307,
            0.9837401325305273,
            -0.5117024403078607
          ],
          "bias": -0.3322472326605985,
          "output": 0,
          "delta": 0
        }
      ]
    },
    {
      "neurons": [
        {
          "weights": [
            0.15920727866602732,
            -0.33773503580371633,
            0.08291547753908834,
            0.5206932766197188
          ],
          "bias": -0.06488694436122792,
          "output": 0.5235478822540254,
          "delta": 0.002953659081174823
        },
        {
          "weights": [
            -0.9903136614061308,
            -0.5033358709247022,
            0.5865040115684985,
            -0.329684626754144
          ],
          "bias": 0.9255120866377661,
          "output": 0.4836811948220375,
          "delta": 0.02484190596120857
        },
        {
          "weights": [
            0.42357607706631406,
            -0.07116192444997282,
            0.6087624615213756,
            0.13340648207769745
          ],
          "bias": 0.4255932079937216,
          "output": 0.7003911718521797,
          "delta": 0.0004003410959340015
        },
        {
          "weights": [
            0.9109582392647172,
            0.6811174028236231,
            0.703588834992255,
            0.7613541477343133
          ],
          "bias": 0.696235514569402,
          "output": 0.833016781312749,
          "delta": 0.001664335078181213
        }
      ]
    },
    {
      "neurons": [
        {
          "weights": [
            -0.7267660504707112,
            -0.857917868696113,
            -0.4832911371904592,
            0.15115861876273123
          ],
          "bias": -0.1870936969500419,
          "output": 0.2325430500766112,
          "delta": -0.04150120934405897
        },
        {
          "weights": [
            -0.36991609199103037,
            -0.46266651550887117,
            -0.3951233958122759,
            -0.413351900955414
          ],
          "bias": -0.09700199626023562,
          "output": 0.24336524073972784,
          "delta": -0.04481293480108
        },
        {
          "weights": [
            -0.04434851198589791,
            -0.07949923518490404,
            0.02061035011288131,
            -0.42549690715240657
          ],
          "bias": -0.6714736696239041,
          "output": 0.2550513306872579,
          "delta": -0.048459790935736706
        },
        {
          "weights": [
            -0.2572480458866512,
            0.27470559622737084,
            -0.2416570065191715,
            -0.1441599140526758
          ],
          "bias": -0.7144024016598998,
          "output": 0.2670935399839238,
          "delta": 0.1434697969067289
        }
      ]
    }
  ]
}