{
  "layers": [
    {
      "neurons": [
        {
          "weights": [
            0.8620192013642227,
            -0.8902790204733995,
            0.5909182439350285,
            0.9654577866267069
          ],
          "bias": -0.8891306188022039,
          "output": 1,
          "delta": 0
        },
        {
          "weights": [
            -0.9426789906181228,
            0.13006079780724655,
            0.8246510800623619,
            0.7467873767333792
          ],
          "bias": -0.5406290684965132,
          "output": 1,
          "delta": 0
        },
        {
          "weights": [
            -0.8548126659663251,
            -0.8555156766037508,
            -0.7532904356426233,
            -0.43000454097726193
          ],
          "bias": 0.00041333645820107456,
          "output": 0,
          "delta": 0
        },
        {
          "weights": [
            -0.10306406723711414,
            -0.3459487150511409,
            0.3647009578258391,
            -0.6892315104466744
          ],
          "bias": -0.9749476207888954,
          "output": 0,
          "delta": 0
        }
      ]
    },
    {
      "neurons": [
        {
          "weights": [
            -0.41974246251240876,
            0.498237467299883,
            -0.6771822520456339,
            0.934152368170944
          ],
          "bias": -0.9423583104260091,
          "output": 0.29640846343091604,
          "delta": 0.019874376646836032
        },
        {
          "weights": [
            -0.571045897624752,
            0.2832650021344424,
            0.188898443690251,
            0.7356853366536291
          ],
          "bias": 0.6717491813368602,
          "output": 0.5949510987534117,
          "delta": -0.016770857205384515
        },
        {
          "weights": [
            0.4190537522690509,
            -0.36019695323045015,
            0.4515291017442362,
            -0.7613468261289364
          ],
          "bias": -0.8190959663859769,
          "output": 0.318851261600461,
          "delta": -0.039440092461426456
        },
        {
          "weights": [
            -0.5383199689424405,
            -0.611426475222862,
            -0.8031221190579574,
            -0.789847534640925
          ],
          "bias": -0.3079182744214653,
          "output": 0.18888666882951347,
          "delta": -0.01347103714158348
        }
      ]
    },
    {
      "neurons": [
        {
          "weights": [
            -0.6559808104201271,
            -0.1806121680357282,
            0.4301691566318282,
            -0.030787992262610538
          ],
          "bias": -0.988865971389472,
          "output": 0.23889828218759163,
          "delta": -0.043437893484272246
        },
        {
          "weights": [
            0.3960188899387751,
            -0.9932188650169774,
            0.24466465863953427,
            0.270844270921689
          ],
          "bias": -0.7701398799654404,
          "output": 0.247167523710262,
          "delta": -0.045991879614676
        },
        {
          "weights": [
            -1.027222306817666,
            -0.5106807999785726,
            -0.49924945067287396,
            0.9847434999575215
          ],
          "bias": -0.49570729619310555,
          "output": 0.2541812059361162,
          "delta": -0.04818592437794434
        },
        {
          "weights": [
            0.24914288498970455,
            -1.032776318937678,
            -1.229179457501008,
            -0.20510093086657458
          ],
          "bias": -0.0558962652155687,
          "output": 0.26319612994416747,
          "delta": 0.1428839000032897
        }
      ]
    }
  ]
}