{
  "layers": [
    {
      "neurons": [
        {
          "weights": [
            0.38674315794650993,
            -0.9250799042769688,
            0.4354616577883865,
            -0.3369978625847867
          ],
          "bias": -0.4864002729741237,
          "output": 0,
          "delta": 0
        },
        {
          "weights": [
            -0.1647601987413183,
            0.911423115376937,
            0.9894493018155537,
            -0.16266183628152975
          ],
          "bias": 0.22607441811654438,
          "output": 1.5251538412205135e-204,
          "delta": 1.885690730771913e-206
        },
        {
          "weights": [
            0.008650064260234736,
            -0.628818651488865,
            0.5434263773402506,
            -0.14478494897189997
          ],
          "bias": 0.4285020184398718,
          "output": 3.0057566384871774e-182,
          "delta": 3.5385889388244825e-185
        },
        {
          "weights": [
            0.9048345395733823,
            -0.053349183550543966,
            0.0350087250474691,
            0.9364328683431742
          ],
          "bias": -0.5897465264431687,
          "output": 1,
          "delta": 0
        }
      ]
    },
    {
      "neurons": [
        {
          "weights": [
            -0.10792348847285882,
            0.49881151714546124,
            -0.9433763247290676,
            -1.4320516406320407
          ],
          "bias": -0.47871257145183493,
          "output": 0.12887525792885,
          "delta": 0.008801393239601878
        },
        {
          "weights": [
            -0.12855873728614142,
            0.27398172810768684,
            -0.2584811699209095,
            -0.7390571646419709
          ],
          "bias": -1.2790482526974818,
          "output": 0.11732337415272709,
          "delta": -0.004025495104000538
        },
        {
          "weights": [
            0.6637560597933241,
            -0.8698133981002729,
            -0.9913526155769292,
            -1.8490956559801397
          ],
          "bias": -0.324044380601384,
          "output": 0.10220300864112272,
          "delta": -0.007858873018063232
        },
        {
          "weights": [
            0.30650578614830915,
            0.8044904166789992,
            0.23294968548727302,
            -1.3389763864845012
          ],
          "bias": -0.5548551264274119,
          "output": 0.13080188588143365,
          "delta": 0.0027854410081089567
        }
      ]
    },
    {
      "neurons": [
        {
          "weights": [
            -0.07898573164099448,
            -0.5626868031280033,
            0.22640728692802833,
            -0.5067774348216749
          ],
          "bias": -1.0152780247006121,
          "output": 0.2433965265949148,
          "delta": -0.044822603976307294
        },
        {
          "weights": [
            -0.7639656697759118,
            0.10727376730029656,
            -0.4712432778211785,
            -0.23394648146540703
          ],
          "bias": -0.9469776519467332,
          "output": 0.24766156010303772,
          "delta": -0.04614561739478079
        },
        {
          "weights": [
            -0.5831531539150363,
            0.1745033879020914,
            0.6314340841326761,
            -0.3963656370253542
          ],
          "bias": -1.04572515006107,
          "output": 0.25214331141717566,
          "delta": -0.04754592341791582
        },
        {
          "weights": [
            0.08401274019542965,
            -0.3584150866754465,
            -0.4739650321025584,
            -0.19623876871371412
          ],
          "bias": -0.9578845373251667,
          "output": 0.2564091044780807,
          "delta": 0.14177562457872694
        }
      ]
    }
  ]
}